<?xml version="1.0"?>
<opencv_storage>
<cascade>
  <stageType>BOOST</stageType>
  <featureType>HAAR</featureType>
  <height>20</height>
  <width>20</width>
  <stageParams>
    <boostType>GAB</boostType>
    <minHitRate>9.9500000476837158e-01</minHitRate>
    <maxFalseAlarm>5.0000000000000000e-01</maxFalseAlarm>
    <weightTrimRate>9.4999999999999996e-01</weightTrimRate>
    <maxDepth>1</maxDepth>
    <maxWeakCount>100</maxWeakCount></stageParams>
  <featureParams>
    <maxCatCount>0</maxCatCount>
    <featSize>1</featSize>
    <mode>BASIC</mode></featureParams>
  <stageNum>8</stageNum>
  <stages>
    <!-- stage 0 -->
    <_>
      <maxWeakCount>3</maxWeakCount>
      <stageThreshold>-1.6766107082366943e+00</stageThreshold>
      <weakClassifiers>
        <_>
          <internalNodes>
            0 -1 7 -5.6301224976778030e-02</internalNodes>
          <leafValues>
            -3.4482758492231369e-02 -9.6803194284439087e-01</leafValues></_>
        <_>
          <internalNodes>
            0 -1 15 7.6636865735054016e-02</internalNodes>
          <leafValues>
            -9.0056341886520386e-01 1.5932308137416840e-01</leafValues></_>
        <_>
          <internalNodes>
            0 -1 6 -4.7259606420993805e-02</internalNodes>
          <leafValues>
            1.9198462367057800e-01 -1.</leafValues></_></weakClassifiers></_>
    <!-- stage 1 -->
    <_>
      <maxWeakCount>3</maxWeakCount>
      <stageThreshold>-1.7361043691635132e+00</stageThreshold>
      <weakClassifiers>
        <_>
          <internalNodes>
            0 -1 16 4.0102899074554443e-02</internalNodes>
          <leafValues>
            -9.6428573131561279e-01 9.0909093618392944e-02</leafValues></_>
        <_>
          <internalNodes>
            0 -1 12 3.8377411663532257e-02</internalNodes>
          <leafValues>
            -8.9738386869430542e-01 9.6877381205558777e-02</leafValues></_>
        <_>
          <internalNodes>
            0 -1 9 5.5614005774259567e-02</internalNodes>
          <leafValues>
            -1. 1.2556518614292145e-01</leafValues></_></weakClassifiers></_>
    <!-- stage 2 -->
    <_>
      <maxWeakCount>4</maxWeakCount>
      <stageThreshold>-2.3552370071411133e+00</stageThreshold>
      <weakClassifiers>
        <_>
          <internalNodes>
            0 -1 24 2.6467662304639816e-02</internalNodes>
          <leafValues>
            -9.5878314971923828e-01 6.3636362552642822e-01</leafValues></_>
        <_>
          <internalNodes>
            0 -1 17 -1.3652344234287739e-02</internalNodes>
          <leafValues>
            6.5590476989746094e-01 -8.4547996520996094e-01</leafValues></_>
        <_>
          <internalNodes>
            0 -1 21 2.1275248378515244e-02</internalNodes>
          <leafValues>
            -8.5799431800842285e-01 3.0400514602661133e-01</leafValues></_>
        <_>
          <internalNodes>
            0 -1 3 -2.5274612009525299e-02</internalNodes>
          <leafValues>
            3.9968559145927429e-01 -8.5497897863388062e-01</leafValues></_></weakClassifiers></_>
    <!-- stage 3 -->
    <_>
      <maxWeakCount>4</maxWeakCount>
      <stageThreshold>-2.1583654880523682e+00</stageThreshold>
      <weakClassifiers>
        <_>
          <internalNodes>
            0 -1 7 -5.6705318391323090e-02</internalNodes>
          <leafValues>
            -3.0000001192092896e-01 -9.6767675876617432e-01</leafValues></_>
        <_>
          <internalNodes>
            0 -1 23 9.4148412346839905e-02</internalNodes>
          <leafValues>
            -8.2144838571548462e-01 3.5520741343498230e-01</leafValues></_>
        <_>
          <internalNodes>
            0 -1 14 2.6369669940322638e-03</internalNodes>
          <leafValues>
            -6.7979097366333008e-01 4.2552909255027771e-01</leafValues></_>
        <_>
          <internalNodes>
            0 -1 13 2.4036243557929993e-03</internalNodes>
          <leafValues>
            3.1055060029029846e-01 -1.</leafValues></_></weakClassifiers></_>
    <!-- stage 4 -->
    <_>
      <maxWeakCount>3</maxWeakCount>
      <stageThreshold>-1.7453894615173340e+00</stageThreshold>
      <weakClassifiers>
        <_>
          <internalNodes>
            0 -1 18 -9.3486987054347992e-02</internalNodes>
          <leafValues>
            -1.1111111193895340e-01 -9.5652174949645996e-01</leafValues></_>
        <_>
          <internalNodes>
            0 -1 20 6.7824348807334900e-02</internalNodes>
          <leafValues>
            -8.6855614185333252e-01 1.4510722830891609e-02</leafValues></_>
        <_>
          <internalNodes>
            0 -1 11 2.4916301481425762e-03</internalNodes>
          <leafValues>
            -7.6572221517562866e-01 2.7638977766036987e-01</leafValues></_></weakClassifiers></_>
    <!-- stage 5 -->
    <_>
      <maxWeakCount>3</maxWeakCount>
      <stageThreshold>-1.8039289712905884e+00</stageThreshold>
      <weakClassifiers>
        <_>
          <internalNodes>
            0 -1 10 -5.6798957288265228e-02</internalNodes>
          <leafValues>
            5.0000000000000000e-01 -9.5303326845169067e-01</leafValues></_>
        <_>
          <internalNodes>
            0 -1 22 -6.7973397672176361e-03</internalNodes>
          <leafValues>
            1.0643848776817322e-01 -8.3296388387680054e-01</leafValues></_>
        <_>
          <internalNodes>
            0 -1 0 1.4075434301048517e-03</internalNodes>
          <leafValues>
            1.2727305293083191e-01 -9.5733416080474854e-01</leafValues></_></weakClassifiers></_>
    <!-- stage 6 -->
    <_>
      <maxWeakCount>3</maxWeakCount>
      <stageThreshold>-1.8606159687042236e+00</stageThreshold>
      <weakClassifiers>
        <_>
          <internalNodes>
            0 -1 8 -3.8304314017295837e-02</internalNodes>
          <leafValues>
            5.0000000000000000e-01 -9.5303326845169067e-01</leafValues></_>
        <_>
          <internalNodes>
            0 -1 5 -3.5123175621265545e-05</internalNodes>
          <leafValues>
            -9.3168407678604126e-01 -1.7132309079170227e-01</leafValues></_>
        <_>
          <internalNodes>
            0 -1 4 -4.5632215915247798e-05</internalNodes>
          <leafValues>
            -1. 2.4101380258798599e-02</leafValues></_></weakClassifiers></_>
    <!-- stage 7 -->
    <_>
      <maxWeakCount>4</maxWeakCount>
      <stageThreshold>-2.2460541725158691e+00</stageThreshold>
      <weakClassifiers>
        <_>
          <internalNodes>
            0 -1 1 -7.3222064971923828e-01</internalNodes>
          <leafValues>
            6.0000002384185791e-01 -9.4926828145980835e-01</leafValues></_>
        <_>
          <internalNodes>
            0 -1 19 1.4447795227169991e-02</internalNodes>
          <leafValues>
            -8.6507987976074219e-01 9.0229533612728119e-02</leafValues></_>
        <_>
          <internalNodes>
            0 -1 4 8.2492799265310168e-05</internalNodes>
          <leafValues>
            5.4521632194519043e-01 -6.8675976991653442e-01</leafValues></_>
        <_>
          <internalNodes>
            0 -1 2 -1.8042758107185364e-02</internalNodes>
          <leafValues>
            5.1132977008819580e-01 -7.0025557279586792e-01</leafValues></_></weakClassifiers></_></stages>
  <features>
    <_>
      <rects>
        <_>
          0 0 20 2 -1.</_>
        <_>
          10 0 10 2 2.</_></rects>
      <tilted>0</tilted></_>
    <_>
      <rects>
        <_>
          0 2 18 16 -1.</_>
        <_>
          6 2 6 16 3.</_></rects>
      <tilted>0</tilted></_>
    <_>
      <rects>
        <_>
          0 5 4 6 -1.</_>
        <_>
          2 5 2 6 2.</_></rects>
      <tilted>0</tilted></_>
    <_>
      <rects>
        <_>
          0 6 6 11 -1.</_>
        <_>
          3 6 3 11 2.</_></rects>
      <tilted>0</tilted></_>
    <_>
      <rects>
        <_>
          0 9 1 4 -1.</_>
        <_>
          0 11 1 2 2.</_></rects>
      <tilted>0</tilted></_>
    <_>
      <rects>
        <_>
          2 0 18 2 -1.</_>
        <_>
          11 0 9 2 2.</_></rects>
      <tilted>0</tilted></_>
    <_>
      <rects>
        <_>
          2 0 12 10 -1.</_>
        <_>
          2 5 12 5 2.</_></rects>
      <tilted>0</tilted></_>
    <_>
      <rects>
        <_>
          2 2 18 1 -1.</_>
        <_>
          8 2 6 1 3.</_></rects>
      <tilted>0</tilted></_>
    <_>
      <rects>
        <_>
          2 6 2 8 -1.</_>
        <_>
          3 6 1 8 2.</_></rects>
      <tilted>0</tilted></_>
    <_>
      <rects>
        <_>
          2 10 14 10 -1.</_>
        <_>
          2 15 14 5 2.</_></rects>
      <tilted>0</tilted></_>
    <_>
      <rects>
        <_>
          3 18 15 1 -1.</_>
        <_>
          8 18 5 1 3.</_></rects>
      <tilted>0</tilted></_>
    <_>
      <rects>
        <_>
          6 7 3 6 -1.</_>
        <_>
          6 9 3 2 3.</_></rects>
      <tilted>0</tilted></_>
    <_>
      <rects>
        <_>
          6 16 12 4 -1.</_>
        <_>
          6 18 12 2 2.</_></rects>
      <tilted>0</tilted></_>
    <_>
      <rects>
        <_>
          7 2 10 6 -1.</_>
        <_>
          7 2 5 3 2.</_>
        <_>
          12 5 5 3 2.</_></rects>
      <tilted>0</tilted></_>
    <_>
      <rects>
        <_>
          7 7 1 6 -1.</_>
        <_>
          7 9 1 2 3.</_></rects>
      <tilted>0</tilted></_>
    <_>
      <rects>
        <_>
          10 12 8 8 -1.</_>
        <_>
          10 16 8 4 2.</_></rects>
      <tilted>0</tilted></_>
    <_>
      <rects>
        <_>
          11 2 8 2 -1.</_>
        <_>
          15 2 4 2 2.</_></rects>
      <tilted>0</tilted></_>
    <_>
      <rects>
        <_>
          12 2 4 4 -1.</_>
        <_>
          12 2 2 2 2.</_>
        <_>
          14 4 2 2 2.</_></rects>
      <tilted>0</tilted></_>
    <_>
      <rects>
        <_>
          13 5 6 9 -1.</_>
        <_>
          15 5 2 9 3.</_></rects>
      <tilted>0</tilted></_>
    <_>
      <rects>
        <_>
          13 11 4 8 -1.</_>
        <_>
          13 11 2 4 2.</_>
        <_>
          15 15 2 4 2.</_></rects>
      <tilted>0</tilted></_>
    <_>
      <rects>
        <_>
          14 2 6 8 -1.</_>
        <_>
          17 2 3 8 2.</_></rects>
      <tilted>0</tilted></_>
    <_>
      <rects>
        <_>
          14 10 6 6 -1.</_>
        <_>
          17 10 3 6 2.</_></rects>
      <tilted>0</tilted></_>
    <_>
      <rects>
        <_>
          15 3 2 6 -1.</_>
        <_>
          15 3 1 3 2.</_>
        <_>
          16 6 1 3 2.</_></rects>
      <tilted>0</tilted></_>
    <_>
      <rects>
        <_>
          16 4 4 12 -1.</_>
        <_>
          18 4 2 12 2.</_></rects>
      <tilted>0</tilted></_>
    <_>
      <rects>
        <_>
          17 5 2 9 -1.</_>
        <_>
          18 5 1 9 2.</_></rects>
      <tilted>0</tilted></_></features></cascade>
</opencv_storage>
